{"learner":{"attributes":{"scikit_learn":"{\"_estimator_type\": \"classifier\"}"},"feature_names":["size","train_severe","police_force_majority_vote","accident_severity_majority_vote","day_of_week_majority_vote","local_authority_district_majority_vote","local_authority_ons_district_majority_vote","local_authority_highway_majority_vote","first_road_class_majority_vote","road_type_majority_vote","junction_detail_majority_vote","junction_control_majority_vote","second_road_class_majority_vote","pedestrian_crossing_human_control_majority_vote","pedestrian_crossing_physical_facilities_majority_vote","light_conditions_majority_vote","weather_conditions_majority_vote","road_surface_conditions_majority_vote","carriageway_hazards_majority_vote","urban_or_rural_area_majority_vote","did_police_officer_attend_scene_of_accident_majority_vote","trunk_road_flag_majority_vote"],"feature_types":["int","int","c","c","c","c","c","c","c","c","c","c","c","c","c","c","c","c","c","c","c","c"],"gradient_booster":{"model":{"gbtree_model_param":{"num_parallel_tree":"1","num_trees":"10"},"iteration_indptr":[0,1,2,3,4,5,6,7,8,9,10],"tree_info":[0,0,0,0,0,0,0,0,0,0],"trees":[{"base_weights":[-4.1728616E-1,-5.716549E-1,7.1337634E-1,-2.0003302E-1,-8.8259466E-2,1.3526322E-1,6.883688E-1],"categories":[],"categories_nodes":[],"categories_segments":[],"categories_sizes":[],"default_left":[0,0,0,0,0,0,0],"id":0,"left_children":[1,3,5,-1,-1,-1,-1],"loss_changes":[5.186339E3,6.8978613E2,1.4806124E3,0E0,0E0,0E0,0E0],"parents":[2147483647,0,0,1,1,2,2],"right_children":[2,4,6,-1,-1,-1,-1],"split_conditions":[8E0,5E0,1.8E1,-2.0003302E-1,-8.8259466E-2,1.3526322E-1,6.883688E-1],"split_indices":[0,0,0,0,0,0,0],"split_type":[0,0,0,0,0,0,0],"sum_hessian":[2.9711168E4,2.6142447E4,3.5687202E3,1.946706E4,6.6753877E3,3.0617175E3,5.0700256E2],"tree_param":{"num_deleted":"0","num_feature":"22","num_nodes":"7","size_leaf_vector":"1"}},{"base_weights":[-3.301692E-1,-4.845971E-1,3.1767553E-1,-5.7462227E-2,-1.6420773E-1,2.1026573E-1,-7.870599E-3],"categories":[0,1,4,6,8,9,10,11,12,13,14,15,16,17,18,19,20,21,22,23,24,25,26,27,28,29,30,31,32,33,34,35,36,37,39,40,41,42,43,44,45,46,47,48,49,51,52,53,54,55,56,57,58,59,60,61,62,63,64,65,66,67,69,70,72,73,74,76,77,79,80,81,82,83,84,86,87,88,89,90,91,93,94,95,96,97,98,99,100,101,103,104,105,107,108,109,111,112,113,114,116,117,120,121,122,123,124,125,126,127,129,130,131,132,134,135,136,137,140,141,142,143,144,146,147,151,152,153,155,157,158,159,160,161,162,163,164,165,166,167,169,170,171,176,177,179,180,181,183,184,185,187,188,189,191,192,193,194,195,196,198,199,200,201,202,203,204,205,206,207,208,209,210,211,212,213,214,215,216,217,218,219,220,222,223,224,225,226,227,228,229,230,231,232,233,234,236,237,238,239,240,244,245,247,248,249,250,253,254,255,256,257,258,259,260,261,262,263,264,266,267,268,270,271,272,274,275,276,277,278,279,280,282,284,285,286,287,288,289,290,291,292,293,294,295,296,297,298,299,301,302,303,304,305,306,307,308,309,311,313,314,315,316,317,318,319,320,321,322,323,324,325,326,327,328,329,330,331,332,333,334,335,336,337,338,339,340,341,343,344,345,346,347,348,350,351,352,353,354,355,356,357,359,360,361,362,363,364,365,366,367,368,369,370,371,372,373,374,375,378,379,380,381,382,384,385,386,387,389,391,393,394,0,1,2,3,4,5,6,7,8,9,10,11,12,13,14,15,16,17,18,19,21,22,23,25,26,27,28,29,30,31,32,34,35,36,37,39,40,41,43,45,46,47,48,49,50,51,52,56,57,58,59,60,61,62,63,64,65,66,68,70,71,72,73,74,75,76,77,80,81,82,83,84,85,87,88,89,90,91,92,93,94,95,96,97,98,99,100,101,102,103,104,105,106,107,108,109,110,111,112,113,114,116,117,118,119,120,121,122,124,125,126,127,128,130,131,132,133,134,137,138,140,141,142,143,144,146,147,148,149,150,151,153,154,156,158,159,160,162,163,164,165,166,167,168,169,170,171,173,174,176,177,178,179,181,183,185,187,188,189,191,193,196,197,199,200,201,202,203,204,206,207,208,210,211,212,213,214,215,216,217,218,219,220,221,222,224,225,226,228,229,230,231,232,233,234,235,236,237,238,239,240,242,244,245,246,247,248,249,250,251,252,253,254,255,256,257,258,259,260,261,262,264,265,266,267,268,269,270,271,272,273,274,275,277,278,279,280,281,282,283,284,285,286,287,288,289,290,291,293,294,295,296,297,298,299,300,301,302,303,304,305,306,307,308,309,310,311,312,313,314,315,316,317,318,320,321,322,323,324,328,329,330,332,333,334,335,336,337,338,340,341,342,343,344,345,346,347,348,349,350,351,352,353,355,356,357,358,359,360,361,362,363,364,366,367,368,369,370,371,372,373,376,377,378,379,380,381,382,383,384,385,387,388,389,392,393,394,395,396,398,400,402,404,405,407,408,409,410,411,412,413,414],"categories_nodes":[1,2],"categories_segments":[0,332],"categories_sizes":[332,352],"default_left":[0,0,0,0,0,0,0],"id":1,"left_children":[1,3,5,-1,-1,-1,-1],"loss_changes":[2.7390325E3,4.0650732E2,6.9458276E2,0E0,0E0,0E0,0E0],"parents":[2147483647,0,0,1,1,2,2],"right_children":[2,4,6,-1,-1,-1,-1],"split_conditions":[7E0,NaN,NaN,-5.7462227E-2,-1.6420773E-1,2.1026573E-1,-7.870599E-3],"split_indices":[0,6,5,0,0,0,0],"split_type":[0,1,1,0,0,0,0],"sum_hessian":[2.7375383E4,2.2106152E4,5.26923E3,3.899969E3,1.8206184E4,2.491729E3,2.7775012E3],"tree_param":{"num_deleted":"0","num_feature":"22","num_nodes":"7","size_leaf_vector":"1"}},{"base_weights":[-2.5613937E-1,-3.4336045E-1,4.9655637E-1,-1.5752274E-1,-5.7510488E-2,1.160187E-1,4.2454937E-1],"categories":[],"categories_nodes":[],"categories_segments":[],"categories_sizes":[],"default_left":[0,0,0,0,0,0,0],"id":2,"left_children":[1,3,5,-1,-1,-1,-1],"loss_changes":[1.673926E3,6.295576E2,2.6659595E2,0E0,0E0,0E0,0E0],"parents":[2147483647,0,0,1,1,2,2],"right_children":[2,4,6,-1,-1,-1,-1],"split_conditions":[1E1,4E0,2.7E1,-1.5752274E-1,-5.7510488E-2,1.160187E-1,4.2454937E-1],"split_indices":[0,0,0,0,0,0,0],"split_type":[0,0,0,0,0,0,0],"sum_hessian":[2.549377E4,2.2846857E4,2.646911E3,1.0392389E4,1.2454469E4,2.3655146E3,2.8139633E2],"tree_param":{"num_deleted":"0","num_feature":"22","num_nodes":"7","size_leaf_vector":"1"}},{"base_weights":[-1.9544628E-1,-3.3494624E-1,1.2463747E-1,-4.836482E-2,-1.302668E-1,9.72623E-2,-3.8980976E-2],"categories":[4,6,7,8,9,13,14,16,17,19,21,22,23,24,25,29,31,32,33,36,37,38,39,40,41,42,43,45,46,47,48,49,50,51,52,53,54,55,56,61,62,63,64,65,66,69,70,72,76,77,78,79,80,81,82,83,84,85,89,91,92,93,95,97,98,99,100,102,103,104,105,106,107,108,109,110,111,112,114,115,117,118,119,121,123,124,125,127,129,133,135,136,140,141,142,144,145,146,147,148,149,150,151,155,156,157,158,159,160,161,162,167,168,169,170,171,172,173,174,175,176,177,178,179,180,181,182,183,185,187,188,190,192,193,194,197,198,199,201,202,203,204,205,206,1,2,3,4,9,13,14,16,19,21,22,23,24,25,26,29,31,32,33,34,36,37,39,41,42,43,44,45,46,47,48,49,50,51,54,55,56,57,59,61,62,63,64,65,66,67,69,70,72,76,77,78,79,80,82,84,85,86,89,92,93,95,97,98,99,100,102,103,105,106,107,108,109,110,111,112,113,114,117,119,120,122,123,124,126,127,128,129,130,131,133,134,135,139,140,141,142,143,144,146,147,148,149,151,154,155,157,158,159,160,161,162,167,168,169,170,171,172,173,174,175,176,178,179,180,181,182,183,185,186,187,188,190,193,194,195,198,199,200,201,203,204,205,206],"categories_nodes":[1,2],"categories_segments":[0,144],"categories_sizes":[144,144],"default_left":[0,0,0,0,0,0,0],"id":3,"left_children":[1,3,5,-1,-1,-1,-1],"loss_changes":[1.0721482E3,2.883512E2,3.703499E2,0E0,0E0,0E0,0E0],"parents":[2147483647,0,0,1,1,2,2],"right_children":[2,4,6,-1,-1,-1,-1],"split_conditions":[6E0,NaN,NaN,-4.836482E-2,-1.302668E-1,9.72623E-2,-3.8980976E-2],"split_indices":[0,7,7,0,0,0,0],"split_type":[0,1,1,0,0,0,0],"sum_hessian":[2.400944E4,1.672169E4,7.2877495E3,6.0816465E3,1.0640044E4,4.0850508E3,3.2026987E3],"tree_param":{"num_deleted":"0","num_feature":"22","num_nodes":"7","size_leaf_vector":"1"}},{"base_weights":[-1.470757E-1,-2.948604E-1,4.3705065E-2,-7.573174E-2,-2.0524989E-1,6.082415E-2,-4.5798577E-2],"categories":[11,19,23,27,31,37,51,55,60,65,98,100,101,109,113,117,127,130,135,141,155,158,164,169,188,191,201,206,207,211,213,217,220,228,240,257,268,275,291,297,301,302,307,308,317,318,319,323,331,334,337,338,341,343,347,353,366,368,373,375,382,391,393,1,2,3,4,6,7,8,9,12,13,14,16,19,21,22,23,24,25,26,27,29,31,32,33,34,36,37,38,39,41,42,43,44,45,46,47,48,49,50,51,54,55,57,58,62,63,64,65,66,67,69,70,72,76,77,78,79,80,82,83,84,85,89,91,92,93,97,98,102,103,105,106,107,108,109,110,111,112,113,114,115,116,117,118,120,121,122,123,124,126,127,129,130,131,134,135,139,141,142,143,144,145,147,148,149,151,154,155,156,157,158,159,160,161,162,167,168,170,171,172,173,174,175,176,177,178,179,180,181,182,185,186,187,191,193,194,197,198,199,201,203,204,205,206],"categories_nodes":[1,2],"categories_segments":[0,63],"categories_sizes":[63,144],"default_left":[0,1,0,0,0,0,0],"id":4,"left_children":[1,3,5,-1,-1,-1,-1],"loss_changes":[6.45895E2,2.1301416E2,3.1234714E2,0E0,0E0,0E0,0E0],"parents":[2147483647,0,0,1,1,2,2],"right_children":[2,4,6,-1,-1,-1,-1],"split_conditions":[5E0,NaN,NaN,-7.573174E-2,-2.0524989E-1,6.082415E-2,-4.5798577E-2],"split_indices":[0,6,7,0,0,0,0],"split_type":[0,1,1,0,0,0,0],"sum_hessian":[2.2907113E4,1.2907792E4,9.999321E3,1.1640966E4,1.2668259E3,5.524705E3,4.4746167E3],"tree_param":{"num_deleted":"0","num_feature":"22","num_nodes":"7","size_leaf_vector":"1"}},{"base_weights":[-1.0925425E-1,-1.5416197E-1,3.52935E-1,2.5489654E-2,-6.306055E-2,1.5577078E-1,9.338353E-3],"categories":[1,3,4,5,6,7,8,0,1,2,3,4,5,6,7,9,10,11,12,13,14,15,16,17,18,19,20,21,22,23,25,26,27,29,31,33,34,35,36,37,40,42,43,44,45,46,47,48,51,52,53,54,55,56,57,58,59,60,61,63,64,65,66,67,68,69,71,72,73,76,77,78,79,80,81,82,83,84,85,86,87,88,89,90,91,92,93,95,96,97,98,99,100,101,102,104,105,106,107,108,109,110,111,112,113,114,115,116,117,118,119,120,122,123,124,126,127,128,130,131,132,133,134,135,136,138,139,140,141,142,143,144,146,147,149,151,152,154,155,156,157,158,159,160,161,162,163,164,165,166,167,168,169,170,171,172,175,176,179,180,181,183,185,186,188,191,192,193,194,195,196,197,198,199,200,201,203,204,205,206,207,208,209,210,211,212,213,214,215,216,217,219,220,221,222,223,224,225,226,227,228,229,230,231,232,234,235,237,238,239,240,241,242,244,245,246,247,248,249,252,253,254,256,257,258,259,260,261,262,263,264,265,266,267,268,269,271,273,274,275,276,278,279,280,281,282,283,284,285,287,288,289,291,292,293,294,295,296,297,298,299,300,301,302,303,304,305,306,307,308,309,310,315,317,318,319,320,321,322,323,324,325,326,327,330,331,333,334,335,336,337,338,339,340,341,342,343,344,345,346,347,348,350,351,352,353,354,355,356,357,360,361,362,363,364,365,366,367,368,369,370,371,373,374,375,376,378,380,381,382,383,385,386,387,388,389,390,391,393],"categories_nodes":[1,2],"categories_segments":[0,7],"categories_sizes":[7,332],"default_left":[0,1,0,0,0,0,0],"id":5,"left_children":[1,3,5,-1,-1,-1,-1],"loss_changes":[4.5857538E2,2.6984686E2,1.046982E2,0E0,0E0,0E0,0E0],"parents":[2147483647,0,0,1,1,2,2],"right_children":[2,4,6,-1,-1,-1,-1],"split_conditions":[1.2E1,NaN,NaN,2.5489654E-2,-6.306055E-2,1.5577078E-1,9.338353E-3],"split_indices":[0,10,6,0,0,0,0],"split_type":[0,1,1,0,0,0,0],"sum_hessian":[2.2090148E4,2.0134486E4,1.9556621E3,3.822594E3,1.6311893E4,1.2889535E3,6.667086E2],"tree_param":{"num_deleted":"0","num_feature":"22","num_nodes":"7","size_leaf_vector":"1"}},{"base_weights":[-8.008605E-2,1.7124999E-1,-1.457029E-1,1.5877795E-1,2.257156E-2,3.6539055E-2,-6.152939E-2],"categories":[0,1,2,5,6,0,1,2,4,5,6,8,9,10,11,12,14,16,18,19,20,21,22,23,26,27,28,29,31,33,34,35,36,37,39,40,41,42,44,45,46,47,49,50,51,52,53,54,55,56,57,58,59,60,61,62,63,64,65,67,68,69,70,71,72,74,76,78,79,80,81,82,83,86,87,88,89,90,92,93,95,96,97,98,99,100,101,102,103,104,105,106,107,108,109,110,111,113,114,115,116,117,118,120,121,122,124,126,127,128,129,130,131,132,133,134,135,136,137,139,141,142,143,144,145,146,147,149,150,151,152,153,154,155,157,158,159,160,161,162,163,164,165,167,169,170,171,172,174,175,176,177,178,179,180,181,182,185,186,187,188,190,191,193,194,195,196,197,198,199,200,201,202,203,204,205,206,207,208,209,211,212,213,215,217,220,221,222,223,224,225,226,227,228,230,231,232,233,234,236,237,238,239,240,241,242,243,244,246,247,248,251,252,253,254,255,256,257,258,261,263,264,265,266,267,269,270,272,273,275,276,277,278,279,280,281,282,284,285,286,288,289,290,291,292,293,294,295,296,297,298,300,301,302,303,304,305,306,307,308,309,311,312,313,314,315,316,317,318,319,320,321,322,323,324,325,326,327,328,329,330,331,332,333,334,335,336,337,338,339,341,342,343,344,345,346,347,348,350,351,352,353,354,355,357,358,359,361,362,363,364,365,366,368,369,370,371,372,373,375,376,377,378,379,380,381,383,384,386,387,388,389,390,391,392,393,394,0,1,3,6,7,8,9,10,11,12,13,14,15,16,17,18,19,20,21,22,23,24,25,26,27,28,29,30,31,32,33,34,35,36,37,39,41,42,43,44,45,46,47,48,49,51,52,53,54,55,57,58,59,60,61,62,63,65,66,67,68,69,72,73,74,76,77,78,79,80,81,82,83,84,85,86,87,88,89,90,91,92,93,94,95,96,97,98,99,100,101,102,103,104,105,107,109,111,112,113,114,116,117,118,119,120,121,122,125,127,129,130,131,132,135,136,137,140,141,142,144,146,147,148,150,151,153,155,156,157,158,159,160,161,163,164,166,167,168,169,170,171,174,175,176,177,179,180,181,183,184,185,187,188,189,191,192,193,195,196,197,198,199,201,202,203,204,205,206,207,208,209,210,211,212,213,214,215,216,217,218,219,220,221,222,223,224,225,226,227,228,229,230,231,232,234,236,238,239,240,241,242,244,245,246,247,248,249,250,253,255,256,257,258,259,260,261,262,264,266,268,270,271,272,274,275,276,277,278,280,281,282,283,285,286,287,288,289,290,291,292,293,294,296,297,298,299,301,302,303,304,305,306,307,308,309,311,312,313,314,315,317,318,319,320,321,322,323,324,325,326,327,328,329,330,331,332,333,334,335,336,337,338,339,340,341,343,344,345,346,347,348,350,351,352,353,354,355,356,357,358,359,360,361,362,363,364,365,366,367,368,369,370,371,372,373,374,375,377,378,379,380,382,383,384,385,386,387,389,391,393,394],"categories_nodes":[0,1,2],"categories_segments":[0,5,337],"categories_sizes":[5,332,332],"default_left":[1,0,0,0,0,0,0],"id":6,"left_children":[1,3,5,-1,-1,-1,-1],"loss_changes":[3.5398978E2,1.5270749E2,2.704442E2,0E0,0E0,0E0,0E0],"parents":[2147483647,0,0,1,1,2,2],"right_children":[2,4,6,-1,-1,-1,-1],"split_conditions":[NaN,NaN,NaN,1.5877795E-1,2.257156E-2,3.6539055E-2,-6.152939E-2],"split_indices":[14,6,6,0,0,0,0],"split_type":[1,1,1,0,0,0,0],"sum_hessian":[2.146198E4,4.442811E3,1.701917E4,9.385628E2,3.5042483E3,3.0921023E3,1.3927067E4],"tree_param":{"num_deleted":"0","num_feature":"22","num_nodes":"7","size_leaf_vector":"1"}},{"base_weights":[-5.8493525E-2,8.6759105E-3,-2.8381938E-1,1.2151751E-2,-1.4601432E-1,-6.9895215E-2,-2.4713671E-1],"categories":[1,3,4,5,9,11,15,19,21,26,31,36,37,55,60,63,69,79,80,83,98,100,105,109,117,120,127,130,141,146,155,159,164,169,188,201,205,209,212,213,217,222,223,228,232,240,257,258,275,296,301,302,303,307,308,317,318,319,322,326,334,337,338,341,348,353,366,12,23,25,34,43,44,50,51,77,112,113,116,118,132,136,137,139,143,148,158,168,176,190,196,199,202,215,217,220,222,224,227,237,251,269,289,295,300,311,316,322,323,332,333,335,338,343,346,349,351,358,361,363,365,369,371,380,386,390,398,405,410,413],"categories_nodes":[0,1,2],"categories_segments":[0,4,67],"categories_sizes":[4,63,63],"default_left":[1,1,1,0,0,0,0],"id":7,"left_children":[1,3,5,-1,-1,-1,-1],"loss_changes":[3.1863138E2,2.5576265E2,1.3251474E2,0E0,0E0,0E0,0E0],"parents":[2147483647,0,0,1,1,2,2],"right_children":[2,4,6,-1,-1,-1,-1],"split_conditions":[NaN,NaN,NaN,1.2151751E-2,-1.4601432E-1,-6.9895215E-2,-2.4713671E-1],"split_indices":[8,6,5,0,0,0,0],"split_type":[1,1,1,0,0,0,0],"sum_hessian":[2.105144E4,1.6217868E4,4.8335703E3,1.5239608E4,9.782603E2,4.418978E3,4.1459232E2],"tree_param":{"num_deleted":"0","num_feature":"22","num_nodes":"7","size_leaf_vector":"1"}},{"base_weights":[-4.2828135E-2,-1.9875872E-1,4.0861204E-2,3.6695164E-2,-7.591033E-2,1.9692784E-2,-1.3624816E-1],"categories":[1,3,5,7,8,9,10,11,12,13,14,15,16,17,18,19,20,21,22,23,24,25,26,27,28,29,30,31,32,33,34,35,36,37,39,40,41,42,43,44,45,47,51,52,53,54,55,56,57,58,59,60,61,62,63,64,65,67,68,69,70,73,74,76,78,79,80,81,82,83,84,85,86,87,88,89,90,91,94,95,96,97,98,99,100,101,102,103,104,105,106,107,109,111,112,113,114,116,117,120,121,122,123,124,125,127,129,130,131,132,135,136,137,139,140,141,142,143,144,145,146,147,148,149,150,151,153,155,157,158,159,160,161,163,164,165,166,167,169,170,171,173,174,175,176,177,179,180,181,182,184,185,187,188,189,190,191,192,193,194,195,196,198,199,200,201,202,203,204,205,206,207,208,209,210,211,212,213,214,216,217,218,219,220,221,222,223,224,225,227,228,229,230,231,232,233,234,235,236,237,238,239,240,241,242,243,244,245,246,247,248,249,250,251,252,253,255,256,257,258,259,261,262,263,265,266,268,269,270,271,272,274,275,276,277,278,281,282,283,284,285,286,287,288,289,290,291,292,293,294,296,297,299,301,302,303,305,306,307,308,309,311,312,314,315,316,317,318,319,320,321,322,323,324,326,327,329,330,331,332,333,334,336,337,338,339,340,341,342,343,345,346,347,349,350,351,352,353,354,355,357,358,359,361,362,363,364,365,366,367,368,369,370,371,372,373,375,377,378,379,380,381,382,383,385,386,387,388,389,391,393,394,4,6,11,15,31,37,42,54,55,60,63,69,80,84,98,109,120,127,130,141,146,161,169,188,191,195,201,204,208,211,213,215,217,222,223,232,234,240,276,280,297,301,302,303,304,308,317,318,319,325,326,328,334,337,338,343,345,348,353,371,374,378,393],"categories_nodes":[1,2],"categories_segments":[0,332],"categories_sizes":[332,63],"default_left":[0,0,1,0,0,0,0],"id":8,"left_children":[1,3,5,-1,-1,-1,-1],"loss_changes":[2.709442E2,1.2639865E2,1.6577867E2,0E0,0E0,0E0,0E0],"parents":[2147483647,0,0,1,1,2,2],"right_children":[2,4,6,-1,-1,-1,-1],"split_conditions":[4E0,NaN,NaN,3.6695164E-2,-7.591033E-2,1.9692784E-2,-1.3624816E-1],"split_indices":[0,6,6,0,0,0,0],"split_type":[0,1,1,0,0,0,0],"sum_hessian":[2.076082E4,7.2504165E3,1.3510403E4,1.0482262E3,6.2021904E3,1.2867126E4,6.43277E2],"tree_param":{"num_deleted":"0","num_feature":"22","num_nodes":"7","size_leaf_vector":"1"}},{"base_weights":[-3.138576E-2,3.9357822E-2,-1.6523303E-1,3.6618575E-2,-3.5559896E-2,-3.6842007E-2,-1.9618735E-1],"categories":[3,5,6,7,1,2,3,4,5,9,11,14,15,23,28,36,37,42,43,46,60,61,65,83,95,100,127,130,136,141,144,151,155,159,169,176,195,200,201,207,211,213,220,224,233,239,240,244,258,265,270,275,282,287,297,299,302,308,317,318,320,334,338,339,341,343,350,352,378,380,386,389],"categories_nodes":[0,1,2],"categories_segments":[0,4,9],"categories_sizes":[4,5,63],"default_left":[1,1,1,0,0,0,0],"id":9,"left_children":[1,3,5,-1,-1,-1,-1],"loss_changes":[1.9424002E2,1.7526561E2,1.4699512E2,0E0,0E0,0E0,0E0],"parents":[2147483647,0,0,1,1,2,2],"right_children":[2,4,6,-1,-1,-1,-1],"split_conditions":[NaN,NaN,NaN,3.6618575E-2,-3.5559896E-2,-3.6842007E-2,-1.9618735E-1],"split_indices":[10,8,6,0,0,0,0],"split_type":[1,1,1,0,0,0,0],"sum_hessian":[2.0511926E4,1.3419759E4,7.0921675E3,8.806888E3,4.6128706E3,6.526823E3,5.6534424E2],"tree_param":{"num_deleted":"0","num_feature":"22","num_nodes":"7","size_leaf_vector":"1"}}]},"name":"gbtree"},"learner_model_param":{"base_score":"1.774198E-1","boost_from_average":"1","num_class":"0","num_feature":"22","num_target":"1"},"objective":{"name":"binary:logistic","reg_loss_param":{"scale_pos_weight":"1"}}},"version":[2,0,3]}