{"learner":{"attributes":{"scikit_learn":"{\"_estimator_type\": \"classifier\"}"},"feature_names":["size","train_severe","police_force_majority_vote","accident_severity_majority_vote","date_majority_vote","day_of_week_majority_vote","time_majority_vote","local_authority_district_majority_vote","local_authority_ons_district_majority_vote","local_authority_highway_majority_vote","first_road_class_majority_vote","first_road_number_majority_vote","road_type_majority_vote","speed_limit_majority_vote","junction_detail_majority_vote","junction_control_majority_vote","second_road_class_majority_vote","second_road_number_majority_vote","pedestrian_crossing_human_control_majority_vote","pedestrian_crossing_physical_facilities_majority_vote","light_conditions_majority_vote","weather_conditions_majority_vote","road_surface_conditions_majority_vote","special_conditions_at_site_majority_vote","carriageway_hazards_majority_vote","urban_or_rural_area_majority_vote","did_police_officer_attend_scene_of_accident_majority_vote","trunk_road_flag_majority_vote"],"feature_types":["int","int","c","c","c","c","c","c","c","c","c","c","c","c","c","c","c","c","c","c","c","c","c","c","c","c","c","c"],"gradient_booster":{"model":{"gbtree_model_param":{"num_parallel_tree":"1","num_trees":"10"},"iteration_indptr":[0,1,2,3,4,5,6,7,8,9,10],"tree_info":[0,0,0,0,0,0,0,0,0,0],"trees":[{"base_weights":[-2.691725E-1,-4.667001E-1,1.1654558E0,-1.9076674E-1,-4.514682E-2,2.3816739E-1,7.9876834E-1],"categories":[],"categories_nodes":[],"categories_segments":[],"categories_sizes":[],"default_left":[0,0,0,0,0,0,0],"id":0,"left_children":[1,3,5,-1,-1,-1,-1],"loss_changes":[4.419801E4,7.334203E3,1.0497889E4,0E0,0E0,0E0,0E0],"parents":[2147483647,0,0,1,1,2,2],"right_children":[2,4,6,-1,-1,-1,-1],"split_conditions":[1E1,5E0,2.2E1,-1.9076674E-1,-4.514682E-2,2.3816739E-1,7.9876834E-1],"split_indices":[0,0,0,0,0,0,0],"split_type":[0,0,0,0,0,0,0],"sum_hessian":[1.5596508E5,1.3709038E5,1.8874693E4,8.930605E4,4.7784332E4,1.5122893E4,3.7518005E3],"tree_param":{"num_deleted":"0","num_feature":"28","num_nodes":"7","size_leaf_vector":"1"}},{"base_weights":[-2.108333E-1,-4.1205704E-1,5.160054E-1,-1.7463124E-1,-8.2002714E-2,7.786363E-2,3.109139E-1],"categories":[],"categories_nodes":[],"categories_segments":[],"categories_sizes":[],"default_left":[0,0,0,0,0,0,0],"id":1,"left_children":[1,3,5,-1,-1,-1,-1],"loss_changes":[2.170871E4,2.741838E3,4.294658E3,0E0,0E0,0E0,0E0],"parents":[2147483647,0,0,1,1,2,2],"right_children":[2,4,6,-1,-1,-1,-1],"split_conditions":[8E0,4E0,1.5E1,-1.7463124E-1,-8.2002714E-2,7.786363E-2,3.109139E-1],"split_indices":[0,0,0,0,0,0,0],"split_type":[0,0,0,0,0,0,0],"sum_hessian":[1.4842588E5,1.1624432E5,3.2181557E4,5.2222625E4,6.4021695E4,2.1558312E4,1.0623246E4],"tree_param":{"num_deleted":"0","num_feature":"28","num_nodes":"7","size_leaf_vector":"1"}},{"base_weights":[-1.6098648E-1,-3.4959477E-1,2.9119164E-1,-7.79979E-2,-1.5386489E-1,2.3345318E-1,3.320429E-2],"categories":[1,3,4,5,0,1,3,4,5,8,10,11,12,13,15,16,17,18,19,20,21,22,23,24,25,26,27,28,29,30,31,32,34,35,36,37,39,40,41,43,45,46,47,48,49,50,51,52,55,56,57,58,59,60,61,62,63,64,65,66,68,69,70,71,72,73,74,75,76,77,78,80,82,83,84,85,86,87,88,89,91,92,93,94,95,96,98,99,101,102,103,104,105,106,107,109,110,111,112,113,114,115,116,117,118,119,120,121,122,125,126,127,128,129,131,132,133,134,136,137,138,139,140,141,142,143,144,145,147,148,149,150,151,153,156,158,159,160,162,164,165,166,167,168,169,170,171,173,174,175,176,177,178,179,181,183,184,185,188,189,192,193,196,197,198,199,200,201,202,204,205,206,207,208,210,211,212,213,214,215,216,217,218,219,220,221,222,223,224,225,226,228,229,230,231,232,233,235,236,237,238,240,241,242,243,244,245,247,248,250,251,252,253,254,256,257,258,259,260,261,262,265,266,267,268,269,270,271,273,274,277,278,279,280,281,282,283,284,285,286,287,288,289,290,291,292,293,294,295,296,297,298,299,300,301,302,304,305,307,308,309,310,311,312,313,314,315,316,317,318,319,320,321,322,323,324,326,328,329,330,331,332,333,334,335,336,337,338,340,341,342,343,345,346,347,348,349,350,351,352,353,354,355,356,357,358,359,360,361,362,363,364,365,367,368,369,370,372,373,374,375,377,378,379,380,381,382,383,384,385,386,387,388,390,391,392,393,394,395,396,397,399,400,401,403,404,405,406,407,408,409,410,411,412,413,414,415],"categories_nodes":[1,2],"categories_segments":[0,4],"categories_sizes":[4,353],"default_left":[0,1,0,0,0,0,0],"id":2,"left_children":[1,3,5,-1,-1,-1,-1],"loss_changes":[1.2061874E4,1.4600605E3,3.6593396E3,0E0,0E0,0E0,0E0],"parents":[2147483647,0,0,1,1,2,2],"right_children":[2,4,6,-1,-1,-1,-1],"split_conditions":[7E0,NaN,NaN,-7.79979E-2,-1.5386489E-1,2.3345318E-1,3.320429E-2],"split_indices":[0,10,7,0,0,0,0],"split_type":[0,1,1,0,0,0,0],"sum_hessian":[1.4142877E5,9.980095E4,4.162781E4,6.444202E4,3.5358934E4,1.1256491E4,3.0371318E4],"tree_param":{"num_deleted":"0","num_feature":"28","num_nodes":"7","size_leaf_vector":"1"}},{"base_weights":[-1.2113317E-1,-3.0281848E-1,1.6031748E-1,-4.252488E-2,-1.18732646E-1,1.7908024E-2,1.9557948E-1],"categories":[0,2,3,5,6,7,9,10,13,14,16,17,19,21,23,24,25,26,29,30,32,33,37,38,39,40,41,42,43,44,46,47,48,50,51,52,54,55,56,57,60,61,64,65,66,68,69,70,72,76,77,78,79,80,81,82,83,84,85,89,92,93,97,98,100,102,103,104,105,106,108,109,110,111,112,113,114,115,116,117,118,119,121,123,124,127,130,131,133,135,136,139,140,141,142,143,144,145,146,147,148,149,150,151,152,154,156,157,158,159,160,161,162,165,166,167,169,170,171,172,173,174,175,176,177,178,179,180,181,182,183,185,187,190,192,193,194,197,199,201,202,203,204,206],"categories_nodes":[1],"categories_segments":[0],"categories_sizes":[144],"default_left":[0,0,0,0,0,0,0],"id":3,"left_children":[1,3,5,-1,-1,-1,-1],"loss_changes":[6.9559707E3,1.2376631E3,2.639788E3,0E0,0E0,0E0,0E0],"parents":[2147483647,0,0,1,1,2,2],"right_children":[2,4,6,-1,-1,-1,-1],"split_conditions":[6E0,NaN,3E0,-4.252488E-2,-1.18732646E-1,1.7908024E-2,1.9557948E-1],"split_indices":[0,9,1,0,0,0,0],"split_type":[0,1,0,0,0,0,0],"sum_hessian":[1.3602836E5,8.266525E4,5.3363113E4,3.0251043E4,5.2414203E4,4.42974E4,9.065715E3],"tree_param":{"num_deleted":"0","num_feature":"28","num_nodes":"7","size_leaf_vector":"1"}},{"base_weights":[-9.004829E-2,-1.5331115E-1,3.7778327E-1,-9.849753E-2,-1.8110275E-2,8.950893E-2,4.0693003E-1],"categories":[],"categories_nodes":[],"categories_segments":[],"categories_sizes":[],"default_left":[0,0,0,0,0,0,0],"id":4,"left_children":[1,3,5,-1,-1,-1,-1],"loss_changes":[3.8980435E3,1.8871638E3,1.218992E3,0E0,0E0,0E0,0E0],"parents":[2147483647,0,0,1,1,2,2],"right_children":[2,4,6,-1,-1,-1,-1],"split_conditions":[1.3E1,4E0,4.5E1,-9.849753E-2,-1.8110275E-2,8.950893E-2,4.0693003E-1],"split_indices":[0,0,0,0,0,0,0],"split_type":[0,0,0,0,0,0,0],"sum_hessian":[1.3170386E5,1.16016164E5,1.5687698E4,4.0240414E4,7.577576E4,1.4511366E4,1.1763325E3],"tree_param":{"num_deleted":"0","num_feature":"28","num_nodes":"7","size_leaf_vector":"1"}},{"base_weights":[-6.595748E-2,1.2360901E-1,-1.9581641E-1,-1.130815E-2,8.648213E-2,-4.3429866E-2,-1.5117854E-1],"categories":[0,1,2,3,4,6,7,8,9,11,13,14,16,17,19,21,23,24,25,26,27,29,30,31,32,33,36,37,38,39,42,43,44,46,47,48,49,50,51,52,54,55,56,57,62,63,64,65,66,68,70,72,76,77,78,79,80,81,82,84,85,89,92,93,95,97,98,100,102,103,104,105,106,108,109,110,111,112,113,114,115,117,119,121,123,124,125,127,130,131,133,135,136,140,141,142,144,146,147,148,149,150,151,154,155,156,157,158,159,160,161,162,166,167,168,169,170,171,172,173,174,176,177,178,179,180,181,182,183,185,187,190,191,192,193,194,197,198,199,201,202,203,204,206,12,28,29,30,34,40,46,51,55,57,58,62,65,84,110,122,151,169,171,176,178,183,196,199,204,210,213,221,222,226,228,230,231,237,241,244,251,253,258,270,273,274,301,311,315,323,332,333,336,338,340,346,349,354,357,359,360,365,370,384,395,397,410],"categories_nodes":[0,2],"categories_segments":[0,144],"categories_sizes":[144,63],"default_left":[0,0,1,0,0,0,0],"id":5,"left_children":[1,3,5,-1,-1,-1,-1],"loss_changes":[3.1554922E3,1.3841523E3,1.1964768E3,0E0,0E0,0E0,0E0],"parents":[2147483647,0,0,1,1,2,2],"right_children":[2,4,6,-1,-1,-1,-1],"split_conditions":[NaN,6E0,NaN,-1.130815E-2,8.648213E-2,-4.3429866E-2,-1.5117854E-1],"split_indices":[9,0,7,0,0,0,0],"split_type":[1,0,1,0,0,0,0],"sum_hessian":[1.28181984E5,5.211101E4,7.607098E4,2.6324623E4,2.578639E4,6.5259742E4,1.0811231E4],"tree_param":{"num_deleted":"0","num_feature":"28","num_nodes":"7","size_leaf_vector":"1"}},{"base_weights":[-4.8268802E-2,2.5615174E-1,-1.03622325E-1,1.3057382E-1,3.486883E-2,-8.005819E-3,-8.406462E-2],"categories":[0,1,2,3,7,1,2,4,5,6,7,9,12,13,16,17,18,19,21,22,23,24,25,26,27,29,30,31,32,34,37,38,39,41,42,43,44,45,46,47,50,52,53,54,55,56,57,58,62,63,64,65,66,67,68,70,71,77,79,80,81,82,83,84,85,89,91,92,97,98,99,100,102,103,104,105,106,107,108,109,110,111,113,114,116,117,119,121,123,124,125,126,127,129,131,132,133,134,135,136,139,143,144,146,147,148,149,150,151,154,155,156,157,158,159,160,161,162,164,165,167,168,169,171,172,173,174,175,178,179,180,181,182,183,185,186,187,191,192,193,197,198,199,201,202,203,204,205,206,1,3,4,5],"categories_nodes":[0,1,2],"categories_segments":[0,5,149],"categories_sizes":[5,144,4],"default_left":[1,0,1,0,0,0,0],"id":6,"left_children":[1,3,5,-1,-1,-1,-1],"loss_changes":[2.121766E3,4.854209E2,1.447513E3,0E0,0E0,0E0,0E0],"parents":[2147483647,0,0,1,1,2,2],"right_children":[2,4,6,-1,-1,-1,-1],"split_conditions":[NaN,NaN,NaN,1.3057382E-1,3.486883E-2,-8.005819E-3,-8.406462E-2],"split_indices":[19,9,10,0,0,0,0],"split_type":[1,1,1,0,0,0,0],"sum_hessian":[1.2591269E5,1.9371908E4,1.0654078E5,8.49569E3,1.0876218E4,7.421061E4,3.233017E4],"tree_param":{"num_deleted":"0","num_feature":"28","num_nodes":"7","size_leaf_vector":"1"}},{"base_weights":[-3.513049E-2,6.527661E-2,-1.7778458E-1,5.2746315E-2,-2.6258772E-2,2.8488418E-2,-7.044478E-2],"categories":[2,4,5,6,7,8,1,2,3,4,5,0,1,2,3,4,5,6,7,9,10,11,12,13,14,15,16,17,18,19,20,21,22,23,24,25,26,28,29,30,31,32,33,34,35,36,37,38,39,40,43,44,46,47,48,49,50,51,52,54,55,57,58,59,60,61,62,64,65,66,68,69,70,71,72,73,74,76,77,78,80,82,83,84,86,87,88,89,90,91,92,93,94,95,96,97,98,99,100,101,102,103,104,105,106,107,108,109,110,111,112,114,115,116,117,118,120,121,122,124,125,126,127,128,129,130,132,133,134,137,138,139,140,142,143,145,146,147,148,150,151,153,154,156,157,159,160,162,164,165,166,167,169,170,171,173,175,176,177,178,179,180,181,183,184,185,188,189,192,193,195,196,197,199,201,204,205,206,207,208,209,210,211,212,213,214,215,216,217,218,219,220,221,222,223,224,225,226,227,228,229,230,231,232,233,236,237,238,239,240,241,242,243,244,245,246,247,248,250,251,252,253,254,256,257,258,259,260,261,265,266,267,268,269,270,271,272,273,274,275,276,277,278,280,282,283,285,286,287,289,290,291,292,293,294,295,296,297,298,299,300,301,302,303,304,305,306,307,308,309,310,311,312,313,314,315,316,317,319,320,321,322,323,324,329,330,331,332,333,334,335,336,337,338,339,340,341,342,343,344,345,346,347,348,349,350,351,353,354,355,356,357,359,360,361,362,363,364,365,367,368,369,370,371,372,373,374,375,376,377,378,380,381,382,383,384,385,386,387,388,389,390,391,392,393,394,395,396,397,399,400,401,402,403,404,405,406,407,408,410,411,412,414,415],"categories_nodes":[0,1,2],"categories_segments":[0,6,11],"categories_sizes":[6,5,353],"default_left":[1,1,0,0,0,0,0],"id":7,"left_children":[1,3,5,-1,-1,-1,-1],"loss_changes":[1.7815991E3,1.2331439E3,7.9927E2,0E0,0E0,0E0,0E0],"parents":[2147483647,0,0,1,1,2,2],"right_children":[2,4,6,-1,-1,-1,-1],"split_conditions":[NaN,NaN,NaN,5.2746315E-2,-2.6258772E-2,2.8488418E-2,-7.044478E-2],"split_indices":[14,10,7,0,0,0,0],"split_type":[1,1,1,0,0,0,0],"sum_hessian":[1.2438128E5,7.300045E4,5.138083E4,4.2357547E4,3.06429E4,8.885631E3,4.24952E4],"tree_param":{"num_deleted":"0","num_feature":"28","num_nodes":"7","size_leaf_vector":"1"}},{"base_weights":[-2.5711281E-2,2.0004783E-2,-2.8670552E-1,7.5940584E-4,2.1016236E-1,-7.18621E-2,-1.4756273E-1],"categories":[7,13,16,19,24,25,29,32,42,43,44,47,51,54,55,56,57,65,66,70,72,79,81,84,85,97,98,102,106,108,111,112,113,114,117,119,121,123,124,127,131,136,144,146,149,154,160,161,167,169,171,176,178,179,180,182,183,185,192,194,197,199,204,29,40,57,62,82,178,196,199,210,213,221,222,226,231,251,253,274,311,323,332,333,338,349,359,397],"categories_nodes":[0,2],"categories_segments":[0,63],"categories_sizes":[63,25],"default_left":[1,0,1,0,0,0,0],"id":8,"left_children":[1,3,5,-1,-1,-1,-1],"loss_changes":[1.4702999E3,1.2469236E3,1.7762097E2,0E0,0E0,0E0,0E0],"parents":[2147483647,0,0,1,1,2,2],"right_children":[2,4,6,-1,-1,-1,-1],"split_conditions":[NaN,3E1,NaN,7.5940584E-4,2.1016236E-1,-7.18621E-2,-1.4756273E-1],"split_indices":[9,0,7,0,0,0,0],"split_type":[1,0,1,0,0,0,0],"sum_hessian":[1.2322561E5,1.0485926E5,1.836635E4,1.0223527E5,2.623986E3,1.4935172E4,3.4311782E3],"tree_param":{"num_deleted":"0","num_feature":"28","num_nodes":"7","size_leaf_vector":"1"}},{"base_weights":[-1.8497365E-2,1.8045503E-1,-6.510122E-2,4.788746E-2,2.6199093E-1,4.3200172E-2,-3.1034356E-2],"categories":[0,1,3,4,5,6,7,8,9,10,11,12,13,14,15,16,17,18,20,21,22,23,24,25,26,27,28,29,30,31,32,33,34,35,36,37,38,39,40,43,45,46,47,48,49,50,51,52,53,55,56,57,58,59,60,61,62,63,64,65,66,67,68,69,70,71,72,73,74,76,77,78,80,81,82,83,84,85,86,87,88,89,90,91,93,94,95,96,98,99,101,102,103,104,105,106,107,108,109,110,112,114,116,117,118,119,120,122,124,125,126,127,128,129,131,132,133,134,136,137,138,139,140,142,143,144,147,148,149,150,151,153,154,156,157,158,160,161,162,164,165,166,167,168,169,170,171,173,174,175,176,177,178,179,181,183,184,185,187,188,189,191,192,193,195,196,197,199,200,201,202,204,205,206,207,208,209,210,211,212,213,214,215,216,217,218,219,220,221,222,223,224,225,226,227,228,229,230,231,232,233,235,237,239,240,241,242,244,245,246,247,249,250,251,252,253,254,256,257,258,260,261,262,264,265,267,268,269,270,271,272,273,274,276,278,279,280,282,283,284,285,286,287,289,291,292,293,294,295,296,297,298,300,301,302,303,304,305,306,307,308,310,311,312,313,314,315,316,317,319,320,322,323,324,326,328,329,330,331,332,333,334,335,336,337,338,340,341,342,343,344,345,346,347,348,349,350,351,352,353,354,355,356,357,358,359,360,361,362,363,364,365,367,369,370,372,373,374,375,377,378,379,380,381,382,384,385,386,387,388,389,390,391,392,393,394,395,396,397,399,400,403,404,405,406,407,408,410,411,412,413,414,415,1,2,4,5,6,7,8,9],"categories_nodes":[0,2],"categories_segments":[0,353],"categories_sizes":[353,8],"default_left":[0,0,1,0,0,0,0],"id":9,"left_children":[1,3,5,-1,-1,-1,-1],"loss_changes":[1.1319086E3,3.3424225E2,7.931042E2,0E0,0E0,0E0,0E0],"parents":[2147483647,0,0,1,1,2,2],"right_children":[2,4,6,-1,-1,-1,-1],"split_conditions":[NaN,3.7E1,NaN,4.788746E-2,2.6199093E-1,4.3200172E-2,-3.1034356E-2],"split_indices":[7,0,14,0,0,0,0],"split_type":[1,0,1,0,0,0,0],"sum_hessian":[1.22076555E5,2.3168232E4,9.890832E4,2.2493215E4,6.7501807E2,1.5327213E4,8.358111E4],"tree_param":{"num_deleted":"0","num_feature":"28","num_nodes":"7","size_leaf_vector":"1"}}]},"name":"gbtree"},"learner_model_param":{"base_score":"2.0494854E-1","boost_from_average":"1","num_class":"0","num_feature":"28","num_target":"1"},"objective":{"name":"binary:logistic","reg_loss_param":{"scale_pos_weight":"1"}}},"version":[2,0,3]}